100 64
52 0.231871 0.34349978 0.3990344 0.35081702 -0.11100153 0.055786315 0.14247094 0.4783901 0.122389235 0.1669452 -0.037480924 -0.6169035 -0.026953522 0.30644923 -0.091464296 -0.045844335 0.4743323 -0.06786849 0.28268677 -0.28400958 0.44071934 -0.47725892 -0.10840642 0.21374537 0.45726416 -0.20613635 -0.15470311 0.46221873 0.09749458 -0.05370029 -0.44371966 -0.17898849 -0.66983634 -0.20824121 -0.20173095 0.2799217 0.44416824 -0.06901851 0.29903823 -0.08325252 -0.13028337 -0.24063502 -0.011620918 -0.291865 -0.20269156 -0.0907926 -0.14293616 -0.35302263 -0.08154695 0.005322809 0.062780775 -0.0064295433 -0.2694549 -0.078442626 0.12403572 0.47201467 -0.05825252 0.3420708 -0.3680713 -0.32380423 0.35675794 -0.22922939 0.0017564464 -0.20381768
2 -0.21820486 -0.12888853 -0.1158423 -0.08958363 0.10329509 -0.2922479 -0.22799306 -0.221036 -0.10630769 -0.26922935 0.14309405 0.12076008 0.16879897 -0.1403035 0.33509138 0.009300895 0.15701269 0.01787842 0.4184153 -0.35647807 0.10798798 -0.44173867 -0.7758053 0.29276717 0.23630504 0.22303584 0.031867202 0.080931015 -0.19219477 0.18067697 0.14792725 0.13435572 -0.32496968 -0.044077974 -0.17608963 -0.32047373 0.18045634 0.045052834 0.3058182 -0.014322292 -0.36182454 -0.42120543 -0.33575666 -0.12332421 0.061651442 0.3483077 0.086605854 0.096308924 -0.42977098 -0.46419695 0.18066484 -0.040441614 -0.19369358 -0.625275 -0.4403198 -0.46678388 0.66085404 0.28964427 -0.5267839 0.18352365 0.13022362 0.02123021 0.12534855 -0.2570372
43 -0.64806855 0.27321205 0.23427442 0.49462122 0.07681753 0.18885572 -0.027807005 0.14559042 -0.09367637 0.30963472 -0.1557787 0.29748932 0.26720157 -0.41262627 0.21144223 0.1392941 -0.0435316 0.46314013 0.013314189 -0.551403 0.3183305 0.17070504 -0.23429209 0.17532253 0.26724425 0.07264725 -0.23859935 -0.5683724 -0.20343761 -0.24277014 0.10595117 -0.10343811 -0.02944387 -0.28010517 -0.36037582 -0.23432623 -0.17351125 0.08991399 -0.44063842 -0.14634694 -0.47565746 -0.577856 -0.5759577 -0.29885757 -0.04681203 0.13277602 -0.23469953 0.49078783 0.23132527 0.01878776 -0.26781684 -0.734948 -0.31554377 0.23808226 0.4041924 -0.021077432 0.21223448 0.42620775 -0.0132553475 0.34928876 0.07811787 -0.10950311 0.044897 0.12509586
76 -0.43356845 -0.44750908 0.17700054 0.52375114 -0.0821195 -0.036116067 0.08574346 0.26421854 0.10801065 0.32810482 0.41438475 0.06197931 -0.045762558 0.08816191 -0.17394863 -0.14657947 -0.07677548 -0.4668192 0.6473504 -0.7484556 -0.121497795 -0.34482118 -0.16301541 0.06065337 0.29096302 -0.07022919 0.22202495 0.123083234 -0.23109363 0.05362974 -0.35960397 -0.37996602 -0.59139115 -0.6345139 -0.30590087 -0.075180665 0.31216872 -0.071309865 0.113338396 -0.09055617 0.68745774 -0.25706384 0.49091056 -0.22021677 0.3698973 0.277878 -0.10417601 0.20302635 0.31532702 -0.08633034 0.02611985 -0.21460856 0.16545382 0.45980507 0.23534663 -0.07681117 0.19464837 -0.4062644 -0.09888324 -0.17833693 0.29351857 -0.41335163 -0.22405699 0.37862912
96 -0.48757195 0.0026720294 0.10586409 -0.31502336 -0.00010966369 -0.05219043 -0.3639994 0.2605744 -0.12030105 0.568425 0.1093093 -0.29314342 0.2490441 0.52588016 -0.13921964 -0.18953182 0.22887577 0.71834904 0.049625218 -0.44577187 0.060529336 -0.071056314 -0.36251435 0.48503897 -0.016133314 0.6947736 0.22114868 -0.12282397 0.22695632 0.014570297 -0.32701433 0.32777476 -0.86743003 0.36795467 -0.03594661 -0.25982627 -0.5229405 -0.21326149 0.2688747 0.29895037 0.3550993 -0.27434227 0.31847766 0.36708415 0.09708535 -0.01781269 0.5899297 0.64800304 -1.0897018 0.26918182 -0.019426556 -0.3597675 -0.32837558 0.24554805 -0.070890784 0.17175704 -0.50739765 0.29202536 -0.09285831 0.00041688443 -0.28001285 -0.25039896 -0.5938616 -0.09069181
17 -0.075569466 -0.28536436 -0.34691146 0.19537735 0.20297816 -0.33670214 0.030637719 -0.30507538 -0.5089858 0.3525677 0.19617398 0.4326443 0.35349402 0.16154692 0.2757915 -0.49031404 0.012453425 -0.029684344 -0.027397264 -0.4548961 0.76977426 -0.23750223 0.02819262 -0.02898872 0.4301948 0.05512357 0.2622242 -0.0070639076 0.5082203 0.04866401 0.10548127 0.29138035 0.6253134 -0.12716313 -0.44156873 -0.14790407 0.13988589 0.01528535 0.25073177 -0.06821919 0.37230077 0.2031703 -0.39083552 -0.20290288 -0.30687237 0.43277612 -0.08346625 0.20608649 0.025091963 -0.14443499 0.6396739 0.39297205 -0.37568676 -0.31078997 -0.5247846 -0.19441733 -0.09516531 0.19748971 0.08040276 0.5415437 0.2871065 -0.8435478 -0.03408935 -0.02034016
72 -0.56564254 0.15247835 -0.06208041 -0.47492594 -0.3784165 -0.2178895 -0.25951618 -0.50218505 0.212017 0.06701391 0.44799063 0.043434516 0.52395815 -0.23357141 0.23891734 0.4715312 0.23769031 0.23743524 -0.12001714 -0.57830805 0.04651928 -0.21697424 0.031056529 0.15926582 0.4210902 0.53707546 -0.48211884 0.18407744 -0.12327663 -0.13806003 0.096396886 -0.5124342 -0.62679344 -0.098964 0.12580311 -0.043154724 0.61229044 -0.002821782 0.2738752 0.60533476 0.28956467 -0.4998502 0.14719346 0.23494348 0.35660055 0.69658244 -0.10594892 -0.20379402 -0.019460684 -0.08060913 0.033928424 0.055867404 -0.024687009 -0.42286825 -0.2817183 -0.53348494 0.6994823 -0.12869087 0.009272342 0.2495509 0.044210587 0.45060098 0.31044576 -0.13395989
92 0.09075073 -0.18530586 -0.20614083 0.059474643 0.50664 0.2629258 -0.16690932 0.10255683 0.25165573 0.08296007 0.12039598 0.28208107 -0.3408521 0.5612859 0.1853921 -0.039020207 0.27926868 0.19369118 0.4626046 -0.32864633 -0.2391781 -0.20221089 -0.17960249 0.3162448 0.5323361 -0.40758482 -0.3175428 -0.0013489034 0.4008272 -0.3242437 0.6708594 0.397794 0.2136213 0.15898329 -0.0005569134 -0.28157455 -0.0030122192 0.041261632 0.01175595 -0.07207277 0.29021698 0.083558664 -0.15823251 0.23235518 0.32613572 0.14651294 -0.32487783 0.5537493 -0.4762453 0.08367537 -0.23292686 -0.3158008 0.38925382 0.08705244 -0.31993306 0.023444373 0.0925129 0.11017874 -0.4513597 0.51315254 -0.060125303 -0.8980614 0.04157759 -0.64671135
85 -0.37256148 -0.033577558 0.095209144 -0.82590884 0.19856486 0.436292 -0.18930963 0.5090183 -0.33916616 0.43791515 0.7513465 0.009920437 0.10223712 -0.15375039 0.5752664 -0.045423094 -0.16242 0.65768963 -0.47058818 -0.4660866 0.34692678 0.38756534 0.21418111 0.34684542 0.37222865 -0.13387805 -0.2898299 0.13887452 -0.08103121 0.027461957 -0.11767923 -0.46258926 -0.05887095 0.29243153 0.39385623 -0.22878724 0.023342969 -0.07945912 0.21061713 -0.040754166 0.20350777 -0.60875076 0.24680434 0.12604664 0.026341822 0.017955925 -0.34951907 0.5057757 0.06506368 -0.22967799 -0.6277131 -0.27813104 0.16923524 -0.42198795 0.31023815 -0.19572127 -0.3331341 -0.65381354 0.32408428 0.39738652 -0.5907727 0.10291786 -0.052609105 0.3032307
49 -0.2886283 0.055165865 0.055341236 -0.5411767 0.47619784 0.4137751 -0.29485205 -0.3355732 0.42649224 -0.42969182 0.36072728 0.42762384 -0.039054636 0.2094486 0.29624453 0.3020214 -0.19787295 0.05971722 0.0218354 0.09110113 -0.13207777 -0.29585993 -0.14370514 0.076780945 0.4832866 0.16823196 -0.08025598 -0.07339984 -0.34297195 -0.10722878 0.32909122 0.04011336 0.026207536 -0.054542433 0.17544486 -0.18118715 -0.07493772 -0.22865877 -0.37790257 0.20494619 0.7166122 0.4685767 -0.24897905 -0.46218994 0.17584696 -0.39816248 0.00018175971 0.81952494 -0.15259986 0.16110781 0.022378232 -0.060613435 -0.3648389 0.17837521 -0.38065413 0.28362697 0.02941547 0.27963093 -0.8766258 0.10454983 0.29612648 -0.012576277 -0.26762807 0.3472967
94 0.24899617 0.50777966 0.05787079 -0.35293633 0.22593921 1.1722963 -0.60780245 0.53593194 0.27613515 -0.40063515 0.17915319 -0.3919757 0.14711887 0.13393545 0.37049994 0.34020892 -0.21852861 -0.32643688 0.39508522 -0.028627755 -0.25271636 0.20174885 0.17998555 0.41050217 0.21348388 0.42941257 -0.4777095 -0.117990695 -0.3530862 -0.20456615 -0.32556495 0.17336868 0.1903453 0.1807616 0.1836181 0.07576532 -0.21004166 -0.91736794 -0.24791844 -0.020444235 0.3420269 0.2379124 -0.007128942 -0.35332593 -0.25782916 -0.16875137 0.2289801 0.57395667 -0.35663235 -0.10140135 -0.45763052 -0.5047971 -0.32968834 0.038480897 0.34268883 -0.2675526 -0.37108856 0.14194897 0.04191031 -0.132433 -0.24109544 -0.15100682 -0.46678433 0.3775325
15 0.09149703 0.29268676 0.21903956 0.074260995 0.23608086 0.13351288 0.23961504 0.1489242 -0.09990045 -0.53300196 0.006449184 0.8094023 0.20209995 -0.48105037 -0.19895402 0.0698654 -0.30140987 -0.17959294 -0.17341635 -0.036858365 -0.075497314 -0.38126352 -0.66147894 0.42487833 -0.17272486 0.50106966 0.12968975 -0.40124822 -0.04367799 0.08523124 0.3838565 -0.33621004 -0.3369519 -0.062190164 -0.24476315 -0.018055638 0.2842356 0.5329373 0.58070433 0.47551048 0.09100779 -0.255955 0.81339765 0.22586964 -0.026628392 -0.46217436 0.38679072 0.65252215 0.019093927 0.58203393 -0.3649254 0.2791077 -0.42358884 -0.19408818 -0.32517448 -0.2308532 0.20918557 0.101090245 -0.57387483 0.26337063 -0.21026063 -0.4551239 0.030608386 0.20773865
78 -0.14197908 -0.4175485 -0.045422137 -0.074659675 0.22211802 -0.22716667 0.47916284 0.08112713 -0.040292487 0.19904795 0.019401278 -0.66482115 -0.24708995 0.39074412 0.32638344 -0.27148902 0.14527039 -0.17740077 0.358804 0.15352014 0.61183417 -0.08518818 -0.16164519 0.3667139 0.37127912 -0.05785898 0.38720125 0.20514165 0.25948182 -0.036544148 -0.470284 0.33317167 -0.18116134 -0.46797332 0.33293587 0.06515293 0.21028967 0.08425474 0.5356732 -0.09554419 0.23091887 0.33665252 -0.45146096 0.4135864 -0.3491006 -0.03619464 0.014688211 0.34632766 -0.22677247 -0.53634703 -0.0458758 -0.022236867 0.08605874 -0.15858644 -0.30034545 0.0732021 -0.41764152 -0.08732953 -0.14607458 0.5079884 0.17988497 -0.73701125 -0.22077772 -0.349101
4 0.1838021 0.025241463 0.34299073 0.4340289 0.29990608 0.031295028 0.37711763 -0.13541247 0.26853406 0.066797264 0.017754974 0.19217137 0.12319083 0.20306057 0.010488243 -0.250349 -0.02523636 -0.025700387 0.36993948 -0.13694523 0.20803046 -0.5192843 0.29203588 0.3262686 0.47051403 0.20256555 -0.2214626 -0.5404128 0.3146647 -0.33040208 -0.2614454 -0.40752745 -0.34434906 0.03453764 -0.09472625 -0.04003716 -0.08672584 0.15869215 -0.31990212 0.30749345 0.37906402 0.26360396 0.35490808 0.1633261 -0.079806626 0.381457 -0.29492256 0.18078223 -0.33986443 0.4810841 -0.056739423 -0.34343886 -0.42205307 0.0082018105 -0.13104725 0.4652448 -0.22352092 0.02483757 -0.22596294 0.101295784 0.47852737 -0.71501625 0.3103139 0.2537677
37 0.25970146 -0.23434515 0.4245393 0.10608676 0.06908636 0.4513309 -0.60484487 0.17226258 0.1400228 -0.29284966 0.18360676 0.031864643 -0.011053699 -0.20221122 0.47855392 -0.079865366 0.11224674 -0.31309947 0.5398889 -0.32439777 0.10729196 0.08573426 -0.33727545 0.26519236 0.4972138 0.12120085 -0.3121799 -0.39685366 -0.101150826 -0.23016162 -0.037227172 -0.38307002 -0.67106974 -0.34364593 -0.46828642 -0.008441033 0.29042056 -0.43864876 -0.06916916 0.4392801 -0.36302614 -0.23453076 0.19805 -0.057351615 -0.2183369 0.3217511 -0.3953808 -0.2797696 -0.13516791 -0.09284865 -0.8055101 -0.22773907 -0.18354686 -0.6278773 0.14836556 -0.43276477 0.18461049 0.2009134 0.06474385 0.106368914 -0.555943 -0.30958477 0.52783597 0.21754363
27 -0.38024467 -0.173474 -0.039891686 -0.55967456 -0.32628295 0.072479084 -0.14984225 0.022544503 0.005734632 0.12484794 -0.10996039 -0.3334784 0.28893542 0.48016468 0.34299716 0.04337971 0.28543922 -0.0027608029 -0.5003751 -0.22842598 0.5413098 -0.06677912 -0.45369408 0.12074775 -0.29245824 0.391085 0.33439302 0.48188052 -0.25423834 0.2380212 0.019331576 0.8572484 -0.0667667 -0.51956636 0.6939663 -0.32698587 -0.007816193 -0.7810004 0.42356366 0.52616584 -0.3380669 -0.3828035 -0.8096632 0.1007749 -0.2233685 -0.30844247 -0.27811134 -0.06985128 -0.08846548 0.14078549 0.19479175 0.08653731 0.27104795 -0.31669322 0.077389814 -0.04535905 0.4983225 0.22217153 -0.5108659 -0.016610673 0.09553247 0.1750519 -0.29023942 0.18000183
84 -0.26042283 0.0033335756 -0.3573003 0.14371456 -0.3607875 0.96799695 -0.23453963 0.3596577 -0.32081857 0.15263508 0.3020162 0.0144124 -0.32938543 0.017030392 -0.11204743 -0.31813678 -0.15404795 -0.31925994 -0.44753206 -0.25567982 0.26736736 -0.13514034 0.34797665 0.2641392 -0.22703524 0.37671462 -0.34964594 0.13871585 -0.22167458 0.29748964 0.081772886 -0.25189072 0.10116752 -0.328508 -0.56063473 0.40100968 0.16531749 -0.08679084 0.22725785 0.39589658 0.64516944 -0.3664278 0.6600392 0.16024347 -0.16934244 0.54014766 -0.20483503 0.09343482 0.5240539 -0.19994499 -0.38569328 -0.3814779 0.08316079 0.17323023 0.28003436 -0.117855266 0.29910174 0.27173063 0.39430624 -0.035282932 -0.09903276 0.1309469 -0.36741513 -0.17448974
62 -0.044340055 0.011674983 0.011422381 0.035181005 0.3554047 -0.10839418 0.011987238 0.7784845 0.021065323 0.029365346 0.16261746 0.046719622 -0.12230156 0.5780192 0.6900913 -0.09757923 -0.33720043 -0.19983104 -0.19761817 0.019339751 0.087631285 -0.26736897 -0.14898759 0.09012104 0.15978432 0.037241943 -0.18294105 0.12419806 0.1727355 -0.2130798 0.18643148 -0.087501876 0.19826122 0.4229504 0.052197702 -0.12540783 0.36199635 0.43616748 0.6065586 -0.25873357 0.74106956 -0.2401911 0.17796072 -0.004609647 -0.27560687 0.021296535 -0.1310324 0.28927246 -0.30302823 0.43031958 -0.12517813 0.17005825 -0.35693675 0.4255213 0.3454113 -0.031973723 0.16802162 -0.62143505 -0.11674088 -0.22633998 -0.4775181 -0.5889872 -0.19843793 0.1923943
57 0.07883362 -0.8526672 0.3201825 -0.38056308 0.39801702 0.69091886 0.09844106 0.55124325 -0.17013465 -0.22012383 0.3009219 0.025002263 0.10827614 0.4216022 0.41915032 -0.21306093 0.24092768 -0.43299186 -0.17296866 -0.5574818 0.59309864 0.009497059 0.4035646 -0.15613805 -0.2791874 0.17740661 0.19052082 0.28412518 0.028377151 0.045203824 0.42967618 0.5087649 0.6529748 -0.14906506 0.40955815 -0.10585217 -0.5799859 -0.45047343 0.1856685 0.020179885 0.2616793 -0.32375312 0.034003306 0.031106872 -0.8840769 -0.11093844 -0.4233327 0.05705071 -0.095212765 0.10762496 0.14078094 -0.021107094 0.35803416 -0.6680363 0.120229125 -0.12227348 -0.19507538 -0.5287383 0.14978151 0.2179128 -0.056942135 -0.3611964 0.36548567 0.40582386
30 0.27849612 -0.47924647 -0.05851769 0.123463124 -0.21564192 0.02149849 0.81814355 0.093676694 -0.2090316 0.1807505 0.11225674 0.094060086 -0.1897747 0.047133476 0.24707335 -0.3650451 0.15413916 -0.027861755 -0.40993887 -0.049526908 0.028768757 -0.05689579 0.3491272 0.41909274 -0.22721797 0.31716147 -0.3656178 -0.42312527 -0.27969566 0.2889165 0.23503079 0.16126204 0.09712795 0.18979403 -0.33235264 0.25704172 -0.3921947 0.09198988 0.37799016 -0.22462387 0.008480363 -0.50952464 0.49798408 -0.44648558 -0.31594652 0.16491297 -0.55879724 -0.5696653 -0.4830412 -0.5684275 0.09083986 -0.20399913 0.119780056 -0.2592775 0.027690131 -0.011860279 -0.0062610707 -0.21170278 0.16507958 -0.00669906 0.19312029 -0.4880505 -0.38463983 0.5514954
36 -0.01176566 -0.5296029 0.12884486 -0.34258506 0.39384124 0.485305 -0.63136387 0.3695348 -0.020661432 0.17068385 0.14828777 -0.09318564 -0.035735246 0.515015 0.40645537 0.017229598 -0.02169097 0.0073034596 0.2187586 -0.29531 0.08926597 0.45358583 -0.0468357 -0.09341489 0.5285259 0.29490608 -0.23859091 0.5488146 -0.40707168 0.0009860429 -0.21716331 -0.1550865 -0.02160592 -0.013869607 0.7403521 -0.17703612 -0.048430644 -0.05761018 0.6480593 -0.4041288 0.77544576 -0.20691928 0.41218254 0.40746313 -0.12512186 -0.22352415 -0.0009006825 0.3976857 -0.24907285 -0.03618099 -0.1593908 -0.15600806 0.043730725 -0.19617292 -0.42368567 -0.054325853 -0.27161804 -0.34785247 0.13262331 0.00747318 -0.10523004 0.0877149 -0.53301877 -0.041508663
8 0.19983923 0.42857623 -0.21099515 0.12396178 0.13797565 -0.046831984 0.24832001 0.4330422 -0.20050244 0.22130437 -0.04481335 0.25867936 0.855511 -0.24996553 0.4898564 -0.8513583 -0.6745474 -0.36291263 0.23748678 -0.10176212 0.12600105 -0.24608721 0.10621409 0.41022792 0.18845773 0.026475484 -0.32917616 -0.3354336 0.39556438 0.21799475 -0.025061555 0.23493347 -0.3589293 1.067083 -0.2431609 0.21978424 0.15153514 0.2696436 0.35425305 -0.061373554 -0.07436519 -0.29704878 0.55442226 -0.5271288 -0.16435587 0.17248277 0.60350996 0.48759976 -0.46799383 0.054591063 0.17127745 -0.38850713 -0.2487407 0.33028808 0.50061053 -0.7682278 -0.42550528 0.262789 -0.16489758 -0.41814402 -0.66634464 -0.26745892 0.13260894 0.04569326
53 0.36876622 -0.13210729 -0.30575532 -0.15997948 -0.009850627 -0.20077908 0.41937292 -0.41469666 -0.15839337 0.08597988 -0.27585468 -0.3380833 -0.09913737 -0.25976264 0.11764463 -0.0686506 0.55416685 0.2916414 -0.19607413 -0.6918063 0.40530577 -0.43903995 0.21893694 -0.035088986 -0.15620673 0.3381225 -0.34794855 -0.34075436 0.09699913 -0.13046665 -0.41289648 -0.045269795 -0.12783925 -0.27255723 0.5302205 0.26051494 -0.04145304 -0.015530435 -0.3897702 0.5777427 0.62041134 -0.21150854 -0.03488723 -0.20676495 0.41311115 -0.39201024 -0.42519188 0.08879982 -0.13135697 0.47693005 -0.11173945 -0.25453642 0.18725562 -0.33869383 -0.4970734 -0.1905717 -0.28656363 -0.28919077 -0.32370466 0.19153486 0.18302815 -0.492941 -0.53563756 0.3151812
11 -0.13788721 0.33785114 -0.23860769 -0.11772129 -0.052705977 -0.17884217 0.22125804 0.14932705 0.1135045 -0.31557387 0.19874313 -0.309171 -0.3064528 0.08986666 0.20574805 -0.18718721 -0.20551409 -0.7413819 0.18689652 0.12232592 0.1458861 0.15855499 0.28522938 0.15936531 0.7715196 0.1501636 -0.46284628 -0.84666216 -0.08743319 -0.050809804 0.09111411 0.5366668 0.4098512 0.165134 0.7357231 0.28537157 0.51982737 0.38060457 0.8617062 0.10801169 0.1334131 0.7097779 -0.13976526 0.22791739 0.3708725 0.32233784 -0.2006488 0.4163322 -0.059571385 -0.38119873 0.34564853 -0.12439668 -0.06852062 0.43359476 0.07457401 0.045725588 -0.13342562 0.17557377 -0.3334569 0.40254316 0.48587945 -0.39174226 -0.48905367 0.035273947
18 0.2820621 0.36748144 -0.30262372 -0.33243406 -0.5939286 0.08267883 0.2508989 0.7913502 0.18229493 -0.042772755 0.21106245 -0.27757296 -0.05186795 0.060347192 -0.058417212 0.12251519 0.4272698 0.17430766 -0.2128216 0.30466387 0.5520666 -0.40266842 -0.018465629 0.76306933 -0.51822543 0.18303397 -0.55744904 -0.10150755 -0.128757 -0.22484516 0.131684 0.19628842 -0.31656772 0.4117667 0.45687166 -0.13204843 0.04965464 -0.22543837 -0.22283368 0.35015276 -0.5552406 -0.52025044 -0.46928808 0.08604506 -0.18880585 -0.3317983 -0.38177425 0.36004138 -0.027251933 -0.15499277 -0.5307713 -0.84847134 0.035039093 -0.38087755 0.3345848 -0.104033194 -0.008247473 -0.36415192 -0.19953932 -0.039982844 -0.0023887334 0.6156488 0.34795353 -0.015467068
95 0.3379722 -0.43705416 -0.047351502 0.22352368 -0.06909161 -0.5299946 0.24931616 -0.037665702 0.11615077 0.2360629 -0.14468469 0.4412041 0.289467 0.121016465 0.28664124 -0.18952183 -0.13705379 -0.5947997 -0.11422884 -0.015761435 0.91425055 -0.25380468 -0.22664653 -0.33516642 0.28410563 0.31896368 0.32116368 0.20846106 0.4192712 0.13941206 -0.7610652 0.1744508 -0.14198777 0.30710396 -0.63609153 0.2629629 0.12346349 0.25898513 -0.29595882 0.13759442 0.15441889 -0.23695359 -0.48240295 -0.30783403 -0.3368624 0.24356027 -0.63627774 0.4296542 0.26163897 0.2551722 0.5488827 -0.1649448 -0.2554761 0.23302583 0.0034852661 0.20923734 -0.12286576 0.082743324 -0.4329704 -0.35259992 -0.078588486 -0.16938376 -0.06849916 0.18785775
69 0.41915244 -0.78450704 -0.024873124 -0.19967268 -0.29317045 -0.09299158 -0.007241574 0.3640456 0.5226448 0.02724701 0.18045685 0.5522107 -0.019302063 0.16483092 0.21391031 0.04545461 0.563012 -0.43661687 0.2400397 0.028187579 0.52052695 -0.037754234 -0.39055663 0.23511629 0.0005566739 0.32393217 -0.2913761 -0.13032447 -0.35319388 -0.023286248 0.1649293 0.28272608 -0.75742996 0.036054067 -0.2661478 0.10936943 0.31289938 0.34671536 0.2895094 0.0033359712 -0.67625344 0.16267838 0.15114053 -0.14434084 -0.08081983 -0.10196327 -0.6844572 0.057357002 -0.24397568 -0.3237431 -0.15362707 0.14546575 0.2084195 -0.34371328 -0.05241295 -0.06844257 -0.024350608 0.249591 -0.33084765 -0.22306463 -0.058862973 0.192802 0.35984352 0.26493603
41 0.6891576 -0.15582527 -0.16291292 -0.3857765 0.44783816 -0.1408204 0.3995544 0.26122546 0.18932852 0.6796656 0.026830317 0.5987571 -0.6251875 0.2212119 -0.17266434 0.682583 -0.018144371 0.07377628 -0.29510403 0.037095163 0.34853336 -0.18235323 0.45644045 0.1511562 0.3379356 0.32216254 -0.2668728 -0.20499533 0.62888163 -0.27191618 0.20574062 -0.23616356 -0.1969581 -0.46247047 -0.39076898 0.036013264 0.21372539 -0.17771207 0.4176819 -0.5389107 0.08196299 -0.55052894 0.559811 -0.064866416 -0.4317624 -0.21778715 -0.54824376 0.10742152 -0.6971704 -0.02107293 -0.023520244 0.50555885 -0.44823673 -0.06441498 -0.14679049 0.09688228 -0.025869688 0.0945351 0.21568908 0.048978526 -0.011954493 -0.2820666 0.20030852 0.24246264
24 -0.01439966 0.38669008 -0.53688395 -0.07779065 -0.11739157 -0.12011447 -0.2559772 0.20349209 -0.51993424 0.70142865 0.083391964 0.58079624 -0.039247856 0.6193841 0.4618105 -0.071261555 0.0944107 0.2428088 -0.5317252 0.0803993 0.5460347 -0.24749902 -0.02077236 0.3854144 0.24012385 0.22087875 -0.41081816 0.008665928 0.2562895 -0.019983387 0.62566787 0.6724712 0.53178483 0.57099134 0.11219386 -0.45550764 0.27693132 -0.2268348 0.19997036 -0.21420999 -0.09090433 -0.45984474 -0.49541894 0.080697946 0.018923381 -0.2852357 0.47542 0.27373207 -0.023807313 0.02974476 -0.10268155 -0.06352281 -0.3815318 -0.025459187 0.20407476 -0.4469359 0.16473769 0.29340288 0.083755925 -0.020738186 -0.17102945 0.11555857 -0.17231223 -0.1894539
34 0.023485048 0.3613573 -0.8082199 -0.48412228 -0.2634391 -0.36429432 0.064788945 -0.23450266 0.13533211 0.22744018 -0.051912688 -0.047671374 0.37082326 -0.01407308 0.51224214 -0.6594863 -0.17780684 0.09542107 0.014647156 0.28855047 0.6335507 -0.29717585 -0.34577644 0.45924518 0.23054624 0.018283244 -0.50490034 -0.052514736 0.22669332 -0.07243274 -0.39285818 0.36632824 -0.03683806 0.09392578 0.6951859 -0.123883754 0.7379623 0.01139049 -0.07124894 0.6248456 -0.066048816 0.57299936 -0.7151398 -0.06178824 -0.28375685 0.13440476 -0.33476567 0.41143668 -0.0770202 -0.08790701 0.049319092 -0.20263083 0.01288063 -0.46393085 -0.43028647 -0.3994813 0.1589035 -0.13198052 -0.5071061 0.04145139 0.05811464 -0.2193159 0.21720828 -0.021803832
56 0.3329606 0.95256877 -0.20653921 -0.045436863 0.25614113 0.8854733 -0.0689397 -0.04794046 -0.011471963 0.26633292 -0.38829884 0.118888006 0.11117956 0.25512996 -0.25989273 -0.20187141 0.04127433 0.054164644 0.24729888 0.18007025 0.29307047 -0.82926995 0.055452064 0.67306596 0.11971264 -0.08750961 -0.42348388 0.87441164 0.16617142 -0.29217744 -0.026424501 0.034280106 0.18843053 0.04219212 0.14638387 0.13818048 0.11723263 -0.26535857 0.10484365 0.32578754 -0.09379914 -0.12215415 0.29574028 0.035846468 -0.16576119 0.80170226 -0.037167676 -0.119773924 -0.138882 -0.2695198 0.30375075 -0.3659677 -0.2281978 -0.5604629 -0.19407569 0.1378572 0.35475665 0.32176775 -0.46012005 -0.31365365 0.17613551 -0.3653685 0.08162507 -0.3525031
33 -0.5270335 0.24119249 -0.33733076 0.46535861 -0.18423124 0.28204054 0.5743394 0.56124204 0.10350819 0.01978492 -0.2824667 0.29408038 -0.47524425 0.54964674 0.012309172 -0.23989002 0.06956578 -0.10794961 0.05143805 0.044408165 0.5219599 -0.39196926 0.31990036 0.7133142 0.5129752 -0.35645086 -0.30131632 -0.042158283 0.2947662 -0.35317954 0.3739037 0.09493926 -0.16996327 -0.34621763 0.036103692 -0.15484877 -0.04085574 0.41951305 -0.28464103 0.05487723 -0.16236089 -0.2325624 0.20440309 0.22150256 0.09691228 -1.0909379 0.19728054 -0.0025704033 -0.3242554 -0.034758814 -0.2876677 -0.77606106 0.13220786 0.07567355 0.11037419 -0.5935245 -0.02795952 0.05809614 -0.15974574 -0.23624998 -0.36018324 -0.16035968 -0.054017898 0.15875416
88 -0.31254056 -0.4621927 -0.35417855 -0.13430724 -0.3501061 -0.32178438 -0.16728443 -0.184021 -0.039892446 0.1513421 0.15862146 -0.47547883 0.07873492 0.27031544 0.3065955 -0.0481477 0.3278956 0.18718658 -0.14525965 -0.39711568 0.15380475 -0.22077824 -0.50386435 0.10806526 -0.19260156 0.75789857 0.06941964 0.044800732 -0.030422833 0.34688866 -0.5886144 0.643962 -0.046134323 0.06963114 0.08320591 -0.21604598 -0.21515842 -0.5879001 -0.29239008 0.33343634 0.32003364 -0.46028382 -0.70160455 0.00394378 -0.2705862 -0.032059044 -0.14924048 0.22804491 -0.44304118 -0.07233845 0.26855388 -0.45821658 0.28889927 -0.31957313 -0.48135498 -0.45799273 0.11479694 0.04147507 0.06862437 0.11414544 0.04438547 -0.2423721 -0.53915906 -0.056226686
32 0.49698633 -0.3070998 -0.32243565 -0.6453028 -0.09608866 -0.5694332 0.30384398 -0.12379012 0.14135236 -0.20290494 0.23184347 0.50103396 0.6782264 -0.3969707 -0.06871622 0.5786904 0.4674631 0.32243058 -0.3627433 -0.26409146 0.1682237 -0.5583479 0.03445087 0.11513061 0.16362388 0.42201775 -0.44537783 0.20815311 -0.0871509 0.018192653 0.020211643 -0.15329267 -0.7366932 0.9696443 0.22764681 0.14880037 0.3799209 0.25148934 0.062394943 -0.04281883 -0.057557665 -0.14268439 -0.070455186 -0.506077 0.23879643 -0.7377577 0.33910096 0.4056957 -0.2768977 0.0046034954 0.45155957 0.19293559 -0.49933374 -0.3142408 -0.6418142 0.16226171 -0.32364407 0.07308611 -0.58215535 -0.052208412 0.04247227 0.43168855 -0.011720663 -0.07570471
74 0.35690945 -0.971868 -0.1332926 0.1459239 0.2939807 0.393081 -0.007930157 -0.0051615387 0.4413254 -0.09806596 -0.22473933 0.02575112 -0.050098054 -0.02899203 0.024452057 0.16108645 0.3027178 0.3193859 -0.5045247 -0.5024342 -0.3422552 -0.1617785 -0.1513653 0.2820445 -0.2861894 0.80038863 -0.6885344 -0.2735756 -0.13441086 0.6103069 -0.010953957 -0.09313505 -0.09405146 0.3128139 -0.4919528 0.19679691 0.0076848394 0.09564066 -0.00034539745 -0.44869983 0.35131237 -0.47787517 0.300434 0.07427802 -0.7841517 -0.4748118 0.08372854 0.38255757 -0.061205078 0.19368431 -0.6375439 -0.48324588 -0.4938823 -0.0027847076 -0.13069093 0.6085994 0.21530986 0.28186 -0.08498584 -0.014522655 0.005746563 0.42419264 0.11915727 -0.25541764
97 -0.2292176 0.17670614 0.1041522 0.13378592 -0.052999195 0.052907843 0.39594936 0.07659019 -0.10513414 -0.102251194 -0.19966482 0.24599653 0.5330719 -0.1866934 0.26907647 0.25681284 -0.023870261 -0.4589473 -0.15272658 -0.054514285 0.41336432 -0.35869423 -0.033327326 0.0012715266 0.5648851 -0.2964385 -0.07165314 0.7656988 -0.28447205 -0.030038567 0.5472933 -0.14875282 -0.23923743 -0.0883007 -0.028254017 0.29225838 0.43885756 0.26453382 0.38565713 -0.36565775 0.027199399 -0.4888004 -0.47232345 -0.7412409 -0.20128922 -0.78837234 0.81159186 -0.44283062 0.63434714 -0.30127805 0.5270442 0.09629228 -0.5976108 0.21068715 0.08752696 0.14532474 0.17529805 0.47698763 -0.47218135 -0.24822885 0.12183542 0.47884884 -0.15176342 -0.22810705
10 -0.0338292 0.54060364 -0.8198611 -0.24404931 -0.35067517 -0.1695545 -0.17979766 0.6935683 -0.23161095 0.31580728 0.5747147 -0.08134225 0.35635057 0.04432418 0.1746984 -0.25959033 -0.7592787 -0.62236017 0.06861583 0.31517953 0.26587856 0.24968569 -0.3770319 0.4822431 0.4011263 0.11846168 0.071825415 0.12424163 0.43409815 0.39282396 -0.12468782 0.46595344 -0.32752573 -0.07762731 -0.53329676 0.002674521 0.5838028 0.03921327 0.8000106 -0.092794 0.093981236 -0.09129219 -0.011134055 0.07982102 -0.055862717 0.25339007 0.17764327 0.6424958 -0.3009221 -0.4604174 0.21674448 0.16987115 0.09453055 0.27335852 0.11292599 -0.84251654 0.14498246 0.62079227 0.14949942 0.016054025 -0.3104752 -0.25740603 -0.43494713 -0.3566992
13 -0.797428 -0.4799259 -0.031672135 0.20047961 0.077755235 -0.2255946 0.26681367 0.6182183 0.12583058 0.15243211 0.18142653 0.37816843 0.012457015 0.34565997 0.18061934 0.35382316 0.08626175 -0.66535443 0.17888084 -0.66707903 -0.12277138 -0.07361996 0.28430375 -0.45379537 0.24931937 -0.14684808 -0.23201586 0.099693075 -0.19076395 -0.08010221 0.46481895 0.49971133 -0.15412791 0.16213971 0.33143398 0.024134759 -0.08369938 0.268335 -0.20532352 -0.51047295 0.23519854 -0.3519586 -0.19714491 -0.26134762 0.28657874 0.14476882 -0.12896648 0.63940644 0.1204596 -0.07424476 0.44493252 -0.5471338 0.69276243 0.86677444 0.5011633 -0.11898143 0.46104687 0.2313826 -0.17583142 -0.0074960985 0.40811685 -0.075382 -0.19327143 -0.3906001
80 -0.08494366 0.26717246 0.68984616 0.036178604 0.030216455 0.22970493 0.06539113 -0.3675127 -0.33190578 0.03306255 0.140289 -0.08762423 -0.25139695 -0.04104281 -0.058888804 0.11145759 -0.05571435 -0.22136146 -0.19174209 0.091099754 -0.030518018 0.45524603 0.60387456 -0.13866708 0.58800644 0.3550309 -0.46130255 -0.90961903 -0.33470252 -0.3224626 0.5419999 0.22067186 0.20126264 -0.03246811 0.53904635 -0.32302144 -0.21939929 -0.91781914 1.0021402 0.61863536 0.09121013 -0.33876145 0.059800435 0.52975595 -0.10761642 0.7642538 -0.36915758 -0.3351958 -0.9687701 0.277126 -0.010389413 -0.26919422 -0.4612419 0.1907349 0.14977182 0.12767887 0.1445696 0.41113326 -0.05023078 0.33534676 0.1970853 -0.13510442 -0.5726635 -0.0021809642
68 -0.32240042 -0.39967638 -0.027515078 1.0499078 0.046655316 0.5432368 0.56680405 0.02707173 -0.22662456 -0.25805897 0.045540437 -0.21528618 0.4840437 0.42086717 0.56161684 -0.97582394 0.10451415 -0.4689541 -0.059544608 0.05016721 -0.10267063 -0.47098094 0.87199074 0.8593789 0.77014863 -0.5915451 -0.3765103 -0.26770288 -0.32997504 0.34752235 0.32408693 0.4962964 -0.0073522315 0.19219045 0.23785084 -0.4742365 0.22855215 -0.43929243 0.51743835 0.046786398 0.072520696 0.23232704 0.028275099 0.47989365 -0.23188436 -0.22941121 0.7337216 -0.19226237 -0.28934208 -0.069518134 -0.279894 -0.3372979 0.08060091 0.08133804 0.3633145 -0.20192814 -0.07443664 0.34744805 0.056135535 0.038245685 -0.034173343 -0.201767 0.021889789 -0.42501885
20 -0.7193065 0.32847947 0.60207254 0.026633505 -0.21697347 -0.14018248 0.6771974 -0.10876121 -0.6741379 -0.1715226 0.04893614 0.46985394 0.5154998 0.1019683 0.08359239 -0.41689128 -0.13345435 -0.62460846 0.11464614 0.14342943 0.57558227 -0.4794061 0.29879135 0.1969624 -0.113977306 0.20927864 0.8518206 -0.20526016 -0.033825625 -0.23409425 0.11829848 0.40159786 -0.24127997 -0.40321362 0.19611381 -0.108494855 -0.35887858 -0.45125443 0.080924034 0.7105188 0.38458025 0.13838285 0.100921996 0.02584864 -0.44961092 0.70537305 0.0011897396 0.2581887 -0.24218939 0.058754966 0.7122542 0.057797514 -0.10497478 -0.06808904 0.096697494 -0.20610622 -0.25016436 -0.09728664 -0.11792894 0.16448541 0.6266296 -0.588265 -0.085477896 0.5031938
26 0.021405704 -0.3760494 0.09848765 0.7137769 -0.11759681 0.20053814 0.14489658 0.106032096 -0.2288617 0.13706061 -0.24232991 -0.25426388 8.7013905e-05 0.612612 -0.073121436 0.3012534 0.21805133 0.3882777 -0.35621122 -0.027607251 0.061311852 -0.61675745 -0.9723066 0.6042054 -0.1703861 0.6789685 0.31799415 0.46056286 -0.39904293 0.32996297 -0.67702806 0.02975836 -0.096553735 0.033501275 -0.5846952 -0.2045257 0.27623764 -0.37547675 0.2239638 -0.55898756 -0.034351233 -0.6219889 -0.40820968 0.23710458 -0.45099297 0.4897902 -0.06855329 0.11125933 0.17605077 -0.2924826 -0.30381685 -0.03748208 -0.3157825 -0.013537795 0.1717122 0.4167908 0.5863834 0.38530707 0.08181315 -0.12983643 0.19002296 -0.44090456 -0.41691685 -0.043279476
65 -0.05838572 0.5097103 -0.41432723 -0.34178078 -0.0014816859 0.21960855 0.45943862 -0.08413406 0.07260573 0.26565152 0.12650965 -0.21045381 0.4993588 -0.3440997 0.2927904 0.49401698 0.006995776 0.645791 -0.46272022 0.028241012 0.20956251 0.09254705 0.20931678 0.7430278 0.6424421 0.21028836 -0.5722146 0.11978119 0.31232312 -0.004112156 -0.31173465 -0.27690756 -0.18142626 -0.074428804 -0.059114553 0.7051783 0.39582473 0.19744053 0.29559094 -0.32044065 -0.08780134 -0.3714423 -0.043711778 -0.0072807623 0.06743402 0.19445121 0.09713782 -0.11153886 0.26812276 -0.6708175 0.08198399 0.23379764 0.15546307 -0.2477646 -0.1728207 -0.040077142 -0.04684475 0.5905315 0.20944625 0.39591554 0.10395078 -0.26294836 -0.2839184 -0.15405561
82 0.7122343 -0.13896552 0.17419697 0.6103648 -0.15391596 -0.38445446 0.18502592 -0.38282615 0.13266633 0.14975421 -0.08459174 0.87080944 -0.17564686 0.10631056 0.18785997 -0.0604321 -0.08150475 -0.09770263 -0.0877978 0.42310193 0.30337203 -0.059512913 -0.12757866 -0.031370778 0.32686388 0.18335532 -0.42027283 -0.628413 -0.15457402 -0.5146154 0.3356612 -0.12466286 -0.1462756 0.58228916 -0.17973283 -0.094105974 -0.15753421 -0.22760488 -0.48592296 0.4577155 -0.023689505 -0.21682438 -0.16724066 -0.33730906 -0.06180741 -0.26856717 -0.23641562 0.005064428 -0.1290457 0.28893346 -0.5035754 -0.78793585 -0.49591154 0.19303882 -0.16702193 0.25807938 -0.36244613 0.093794264 -0.54563135 -0.17304532 -0.3542458 -0.30670992 -0.18937369 0.4340808
58 -0.013151373 0.13981302 0.109587155 0.522405 0.10055742 1.0729038 0.14177273 0.43697578 -0.76017386 0.26131573 0.12203611 0.12419668 0.49075902 0.37008873 -0.079799086 -0.5850845 -0.17622972 0.5296766 -0.43176952 -0.10821672 0.76309717 0.13217704 0.39379144 0.47347787 0.41111192 -0.22490962 -0.07559993 0.01641032 0.0869647 0.20081757 0.26790807 0.23955727 0.4241387 0.30737936 -0.6958314 -0.26018018 -0.6715685 -0.15969928 0.16458958 -0.51103693 -0.4177392 -0.17954321 -0.31552354 -0.10706709 -0.31916484 0.4480737 -0.58032244 0.38036537 -0.3289997 -0.18714313 -0.15800406 -0.35499567 -0.24817306 0.11450246 0.5967631 0.69540167 -0.085554585 1.0417833 -0.14077684 0.07493559 0.079435006 -0.3251467 -0.12378253 -0.02121445
91 0.15004127 0.14065963 -0.2906793 0.6292902 -0.58486295 0.22465412 0.21581955 -0.056692787 -0.15092817 -0.26059625 -0.3828175 -0.0067726173 0.34061673 0.4049355 -0.1654173 0.2792146 0.056149896 -0.37586278 0.24829146 0.51778936 -0.26154688 -0.08914969 -0.17239915 0.40121445 0.1238665 0.47437447 -0.52432764 -0.17267689 0.01628315 -0.57817495 0.6920017 -0.36122087 -0.43436325 -0.135478 0.26097184 0.611167 -0.023971664 0.03664956 0.14539102 0.02933809 0.4929864 -0.6773761 0.41226584 0.5695732 -0.11523214 0.09501006 0.31327906 -0.36818835 0.13119297 -0.08879338 -0.67258763 -0.6590039 0.4608046 0.16642866 -0.1817252 -0.29412535 0.18213591 0.27345228 0.1644321 0.18411669 0.078266695 -0.43479577 -0.089006335 -0.12023495
42 0.38295233 0.5331479 0.11694197 0.19853413 0.30790415 -0.17581882 -0.122625165 0.36419323 0.20412707 0.7341832 -0.18118173 -0.43777525 -0.19634223 0.17265095 0.1533842 0.10339784 0.2928048 0.15121014 -0.019147692 -0.527185 -0.2122076 -0.39220458 -0.5674786 0.13005108 0.0042654923 -0.19685127 -0.28680512 0.014187387 0.029919585 -0.063232146 0.35356247 0.64469254 0.46093675 0.2562664 0.41358858 0.016241495 0.3501087 -0.111989535 0.688286 -0.308606 0.12054101 -0.36884287 -0.1821906 -0.2628667 -0.06631165 -0.02046589 -0.07990649 0.17867896 0.08282951 0.19852796 0.14439443 0.10177505 -0.22009827 0.17819363 0.06061878 0.54163116 0.07739583 0.055938017 -0.39540356 0.3821604 0.14659259 -0.73541474 -0.36341342 -0.37299
23 -0.49450463 0.37198022 0.23371367 -0.36302686 0.19559026 0.013419449 0.09918563 -0.37471154 -0.4067664 0.38884863 -0.4733947 0.2278817 -0.11565217 -0.2903627 0.78370607 -0.11982645 0.12651527 -0.017401082 -0.40675944 -0.21682653 0.49858013 -0.044136293 0.32063708 -0.2488346 0.34683412 -0.40671918 -0.20700458 0.5695181 0.26685366 0.10637579 0.2858894 0.40554574 -0.03442915 0.40196666 0.29772013 -0.053109918 -0.1704169 0.23908639 -0.44604868 0.6994033 0.51847774 -0.48675042 -0.12649421 -0.13508745 0.18034308 0.097343296 -0.20492247 0.34014276 -0.027291369 0.07624728 0.09846827 -0.73198736 0.027633134 -0.06328355 0.07015917 -0.22819081 0.18575598 0.20657729 -0.6009649 0.09331713 -0.46844602 0.23009609 -0.7375052 -0.8357515
86 -0.005585242 -0.48482633 -0.2955807 0.55274576 -0.44979638 0.08202386 0.10899961 0.072894484 0.06272186 0.6049097 0.077489026 0.2790388 -0.1642911 0.18258089 0.048625927 -0.55541205 0.28979456 -0.08117737 -0.28137913 -0.5105518 -0.11559549 0.018603407 -0.16292726 0.1738006 -0.38551545 0.038716637 -0.5150383 -0.34451362 -0.34396982 0.30974814 -0.089298666 0.43674845 0.18811339 -0.27001697 -0.030395027 0.3920916 0.382076 -0.39415473 -0.68656325 0.39396507 0.47528264 -0.04330267 0.07703265 0.036005285 -0.38585663 -0.018438356 -0.42902887 0.17823641 1.0433247 0.4137153 -0.809688 -0.5660862 0.5519174 -0.0774421 0.13954532 -0.079766564 -0.094312035 -0.12156275 0.32841244 0.5023793 0.5578801 -0.5954718 -0.13224784 -0.084926434
9 -0.3238562 0.065774016 -0.114971384 0.12995444 -0.44977674 0.22658926 -0.13838734 0.43445778 -0.103316635 0.15783986 0.15334636 0.5303769 -0.4066944 0.089512825 -0.531002 -0.3758271 0.053793296 0.13081904 -0.05353976 -0.060197454 0.6115474 -0.61643296 -0.060226914 0.092064284 -0.56194884 0.013593665 -0.16893835 -0.032677233 -0.6383871 -0.21364042 0.24316333 -0.015707169 -0.34081182 -0.44899908 0.47409704 -0.2008519 -0.23955414 -0.39221248 -0.69534296 0.72651535 0.3785609 -0.26071617 0.3676089 -0.056780852 0.013120134 0.07002968 -0.8955257 0.59294707 0.42067605 0.3552467 -0.20089757 -0.95606184 0.34411606 -0.2243974 -0.016910357 0.048263073 0.0207331 -0.27108315 -0.25142634 -0.117999785 0.5295003 0.28326467 -0.11363333 0.4089231
19 0.24217983 -0.3920895 0.11586675 -0.7688899 0.28676707 0.49775687 -0.37233374 -0.08741807 0.2740473 -0.5304753 0.4192652 -0.30322698 0.54176843 -0.054210242 0.61872095 0.14278893 0.33391416 -0.358666 -0.13876492 -0.6286453 -0.25690448 -0.15602551 0.5078312 0.074389115 0.34016603 0.1958174 -0.5334609 0.7525845 0.14193952 0.25253534 0.0693309 -0.39112073 -0.17049088 0.3827369 -0.10036669 0.0720283 0.16991895 -0.25893405 0.38176408 0.48072383 0.7210083 -0.17568944 0.20353678 0.091937736 -0.41775742 -0.10581765 0.28265566 -0.2925711 -0.37762937 0.2950607 0.035038646 0.17902759 -0.4614054 -0.6832635 -0.49145517 0.221107 0.30931565 -0.36629885 -0.23204248 0.036229335 -0.20303074 0.27594972 0.23481639 -0.5426334
45 -0.689062 0.1939333 0.24771985 -0.33995524 0.15435395 0.26077476 0.5896687 -1.0854485 0.26221818 0.57913697 -0.16315906 0.053553816 -0.15989742 -0.1891823 0.2938298 0.027773155 0.38018575 0.49342978 0.0323988 -0.42702344 0.25469115 0.23195285 0.79755926 0.26231912 0.5624353 0.16519928 -0.60795933 -0.6464859 0.62944436 -0.121988855 0.23418188 0.28976786 0.45135096 0.093967505 -0.27367765 0.038645424 -0.09790438 -0.09728247 0.114899315 0.6706932 0.2124856 0.18509558 -0.027131326 0.296398 0.17823608 0.56751156 -0.022633975 -0.18639897 -0.4642187 -0.1474462 0.0056139207 -0.39570454 -0.047971506 -0.11178482 0.05536654 0.08487846 -0.112550505 0.2937202 -0.28241974 0.74411553 0.09149159 -0.64722306 -0.16111496 -0.2310154
3 -0.44576904 0.3065779 -0.39894944 -0.6170095 0.08734486 0.4221872 -0.23404609 0.16168512 0.14498116 -0.3402474 0.30704173 -0.77660394 0.08809195 -0.2165329 0.18494083 -0.4015358 -0.30575854 0.022134801 0.74909276 -0.5204873 0.0010539129 -0.12965779 -0.15529017 0.35088453 0.44101334 -0.2369196 -0.27402693 0.29767683 0.26062945 -0.1057663 -0.24248753 -0.16443987 -0.343327 0.1995517 0.5963703 0.5976898 -0.13123098 0.284576 -0.5202109 0.51131153 0.15623322 -0.17659377 0.029597908 -0.41717035 0.53068906 0.40913668 -0.23252569 0.29876053 0.34159747 -0.6957236 -0.018021634 -1.2870885 0.40093684 -0.17021026 0.1038569 -0.40526098 -0.073839515 -0.49328938 -0.45918626 0.27055055 -0.27007475 -0.37688583 0.010521286 0.16613457
83 -0.4474616 -0.3271466 0.19313842 -0.23096141 0.43606484 -0.15450549 0.3482172 0.087742 0.2718943 -0.12164474 0.18172993 0.39944708 0.46692467 0.34104136 0.1653379 0.18009616 0.101050384 -0.4385092 0.12010613 -0.81747085 -0.31444973 -0.6770249 -0.17034845 0.14366317 0.0011604803 0.07929125 0.1269646 0.47165647 0.19728132 0.455836 -0.15634088 0.37039092 -0.27896887 -0.23003002 -0.061403867 0.12947626 0.3692382 0.028747277 0.0160264 -0.18688627 0.39061695 0.099726066 0.37426904 -0.20879562 -0.2929607 -0.014684932 0.3114668 0.24523994 -0.055703003 0.40326247 0.51178986 0.41719306 0.19520035 -0.17676525 -0.06383116 -0.3619371 0.34154096 0.011942935 -0.35990626 -0.022895198 0.68778807 -0.5877944 0.22736152 0.10480008
70 0.32300317 -0.55638516 0.3804387 -0.13499455 -0.27360323 0.31460828 0.7067934 0.0020624443 0.2955137 -0.557846 -0.062342852 0.08724936 -0.08995085 -0.32577208 0.014957752 -0.1028549 -0.1724738 -1.013078 0.34684837 0.14440529 0.5193525 0.48760116 0.36881986 -0.06461956 0.16283064 0.13709466 0.11180814 -0.36912373 -0.7121695 -0.108718015 0.20519572 -0.07419273 0.037309304 -0.18926306 -0.24921899 0.449686 -0.553865 0.0067304564 -0.033572685 0.104410626 -0.37507173 0.16853425 -0.17142604 -0.91090196 -0.14264777 -0.66386575 -0.6806736 -0.2586441 0.06235124 -0.6821292 0.1470991 -0.53576183 -0.27759576 0.004934774 0.03735628 0.42363387 -0.58597445 -0.0873214 -0.614986 -0.017143626 0.24599087 -0.20018622 -0.417843 0.91219705
0 -0.22124536 0.11788235 0.029676814 0.12210659 -0.0934652 0.14469421 0.16424128 -0.19493484 0.247416 0.71930766 0.0655942 -0.3762384 -0.2524255 0.13417472 0.033085562 0.44544446 -0.19608943 0.14218557 -0.10195614 -0.07789033 -0.12278684 0.20780425 0.08432179 0.2722326 0.08456184 0.5555136 0.056358766 -0.26191542 0.2069086 0.41314352 -0.51784974 0.24631736 -0.6482868 -0.55623233 -0.6576042 0.47380522 -0.20173849 -0.30893877 0.09040547 -0.09078854 0.3818888 -0.84207094 0.42589617 0.40720385 0.17219883 0.76428556 -0.5021189 0.66884845 -0.15291427 -0.35668433 -0.47418857 -0.3958253 0.5455308 0.39579278 0.35706663 -0.026358001 0.046611942 0.7163877 0.06067747 0.4029382 0.2894728 0.036145087 -0.54631305 -0.23423737
60 -0.77658576 0.048019208 0.48658842 -0.16754884 -0.15973997 -0.030222606 0.0606033 0.42847574 0.17817383 0.7359477 0.22700742 -0.2820901 -0.8431434 0.3366826 0.044890083 0.31305647 0.39930156 -0.2829841 0.10939671 -0.5615455 0.5850779 -0.18433328 0.38654858 -0.13929126 0.45119616 -0.15044351 0.12860881 0.27493453 -0.036466986 -0.20386547 -0.057420302 -0.06908491 -0.80204546 -0.9045582 -0.47029898 0.40844935 0.23910157 0.13513768 0.1794721 0.010556706 0.23817295 0.005605277 0.25305426 -0.32250813 0.4193895 0.06519447 -0.48055437 -0.06672274 0.23448782 -0.4333975 0.023846796 0.19250795 -0.36232638 0.49379164 0.60876524 0.5893567 0.099605806 0.24084403 -0.24514912 0.050069198 0.42804977 0.20401561 -0.3324194 0.014291328
75 -0.25146854 -0.00064115576 0.67249376 0.9146506 -0.09966143 0.05445996 0.006521716 -0.00315432 -0.7611494 -0.050614532 0.3372807 0.5339578 0.36749002 -0.17349268 0.22142486 0.05934634 -0.0060063945 -0.53781027 -0.116021976 -0.09007019 0.3118155 -0.05600715 0.1888314 -0.20610474 0.867754 -0.3254529 0.013435366 -0.22328924 -0.9027877 -0.21301304 0.22682855 0.06406156 0.033841416 -0.04496232 0.21206519 -0.4330974 0.28248638 -0.6324013 0.37121534 0.03272307 -0.43537 -0.17289971 -0.65627277 -0.19307375 0.198665 0.16681956 0.14404057 -0.23430787 0.46500322 0.00076068885 0.20916983 0.15763013 -0.5934682 0.18757027 0.2300061 0.2340153 0.090606235 0.27289093 -0.21122898 0.10609223 0.3827219 -0.31044865 -0.4603225 0.26954246
67 -0.5912416 0.3065849 0.40002295 0.28893518 0.056803547 0.8422499 -0.16626984 0.5892887 -0.41562453 0.010021627 -0.25839022 -0.4708888 0.42276707 -0.09970488 -0.51976776 -0.15178771 0.19652964 0.39408377 0.05342109 -0.7967812 0.209963 -0.1974641 0.18210341 0.25385657 -0.067920245 0.08873288 -0.19287606 0.10711117 -0.7075164 -0.43586788 0.74728304 -0.15384613 -0.3291207 -0.89032805 1.2160773 -0.10837379 -0.4288475 -0.40658826 0.759084 0.22555941 -0.071125455 -0.7200367 0.66191685 0.32899728 -0.037508897 -0.42416787 0.5248673 -0.33792174 0.11640756 0.3102695 0.09325053 -0.34628576 -0.118250124 -0.32342622 -0.0015868788 -0.017800111 -0.0017895513 0.18051311 0.22589849 0.49161673 0.4040554 0.0063116285 0.02026645 0.021560524
6 -0.034033056 0.18436845 0.6135061 -0.39264244 -0.23144619 -0.23770279 -0.08088696 -0.08097305 0.030324075 0.58623445 0.1986076 0.20157512 -0.038735434 0.47204286 0.2031227 0.55561817 -0.07819892 -0.38208526 0.31551194 0.23306209 -0.14141485 0.12618849 -0.32565558 0.019965492 0.14115338 0.6924316 0.3053296 -0.33947313 -0.63110524 -0.8099819 0.111271136 0.33445078 -0.14433941 0.43133917 0.57038707 -0.22875112 -0.036001734 -1.0394002 0.38140818 0.071236804 -0.19122966 0.114681505 -0.4747567 -0.6064092 -0.34456685 -0.030094123 0.5012573 0.019867515 -0.21457237 -0.61797243 -0.035113774 0.0023456523 -0.8024323 0.38892427 0.32697636 0.29933807 -0.70489883 -0.48092222 0.09253802 0.29238936 0.051898934 -0.59924084 -0.37389582 0.84203744
28 -0.29368368 -0.44122076 0.17184101 0.34785047 -0.32314697 -0.4139032 0.18237875 0.20510946 -0.16884366 0.0826238 0.43235484 0.5071299 -0.32929608 -0.20475586 0.5673032 0.2795969 0.22879152 -0.18188235 -0.047063783 0.14553441 0.3816334 0.45419532 -0.2660861 0.009379515 0.0076969354 0.3620124 -0.081737936 -0.64315087 -0.20227344 0.14548989 0.59705013 -0.18118694 0.11237648 -0.22550015 -0.6059765 -0.36717936 0.17484187 0.33172974 0.3187161 -0.3455216 0.27090016 -0.6429427 -0.23373255 0.3138581 -0.3066103 -0.5433571 -0.09070034 0.4589483 0.230779 0.035543025 -0.7613578 -0.025164723 -0.32120812 -0.124824315 -0.16015951 -0.29307488 0.21144837 -0.26979083 0.14816812 0.58250946 0.19890971 0.19974583 -0.12366059 0.024096867
29 0.05082907 -0.52251756 -0.36700508 -0.63976455 -0.02134524 0.6471906 -0.17092013 0.1582898 0.31118906 0.6566967 0.33226264 0.13188833 -0.41029784 -0.17554295 -1.115931 -0.042743698 -0.45796692 0.026751272 0.15423399 -0.17251214 0.45052674 0.34417725 0.060019672 0.3425635 0.069159254 0.13296741 0.08297673 0.20120904 -0.29925063 0.5272573 -0.14020422 -0.046531167 -0.28372672 -0.90734047 0.10915626 -0.7125976 -0.0056193005 -1.0196784 1.0556227 0.2082848 -0.46441457 -0.8630698 0.035384573 0.5146424 -0.09100806 -0.53096616 -0.033600196 0.64330214 0.050564382 -0.12976067 -0.013540519 -0.5645291 -0.16857049 0.07466469 0.036922496 0.62297004 -0.09502162 -0.15686019 -0.5013554 0.0033271683 0.2321327 1.0022676 -0.044928096 -0.0346865
46 -0.2527119 -0.11410135 0.111129 0.14929956 -0.01247763 -0.06810134 0.4170219 0.2362414 -0.16636558 -0.0052508684 0.073570356 0.040602278 -0.36244285 0.8030203 0.8774855 0.3219323 0.7093533 -0.1681289 -0.510986 0.5295441 0.74701697 -1.0316886 0.13558075 0.5345215 0.089287 -0.035250507 -0.07668002 0.6254553 -0.38125947 -0.06603283 -0.25468284 0.37674513 0.032432526 -0.37502795 0.5802419 -0.27153242 0.57421523 -0.18847208 -0.25947684 -0.21733198 0.49904218 0.25715593 -0.4694474 0.31127384 -0.23691896 -0.3548696 -0.11185565 0.17285408 0.48523283 -0.030096008 -0.35142848 0.55467737 -0.07836622 -0.5405825 0.09171734 -0.023410011 0.19903782 -0.5465569 -0.13762744 -0.21434829 0.46082678 0.0013359686 -0.05663165 0.4059525
63 -0.64832133 -0.33573434 -0.15075338 0.20332646 -0.053948727 0.05658079 0.38164032 0.018507468 -0.3445151 -0.028182916 0.15935732 0.1137917 0.17177317 -0.20171228 -0.5650338 -0.70618975 -0.38188004 -0.10472257 0.02866779 0.19436257 0.9177182 -0.06836938 0.34296417 0.0029125586 0.7590024 -0.2647785 0.020304957 -0.02420223 0.08951158 0.12740102 -0.13918197 -0.7131538 -0.66683227 -0.64173365 0.2580163 -0.046064906 0.28072447 0.46858534 0.61580354 0.38901702 0.4146793 0.23455009 0.06874093 0.3768234 -0.18415098 -0.16398305 -0.009879712 0.3717806 0.14367466 0.12958749 0.34037858 -0.25245532 -0.38550162 0.27586612 -0.46647248 0.76423174 -0.113473095 0.30354613 -0.53407127 0.09743265 0.44678897 0.13291347 -0.14562893 -0.21618344
81 -0.19438305 -0.1850636 -0.71401733 -0.16465314 0.8080521 0.188632 0.17067733 0.19612843 0.42692795 -0.1807894 0.011630536 0.81503123 0.19157578 0.19991781 0.35715783 0.20860425 -0.40767202 0.046598 0.15864521 -0.21114418 -0.4167135 -0.9575081 0.18935835 0.117318764 0.5287178 -0.81718105 -0.5472948 0.95619094 0.42070064 -0.577084 0.8428108 -0.35697174 -0.045581922 -0.2418441 0.26123267 0.30595237 0.34892246 0.098849304 -1.0198154 -0.487358 0.36120474 -0.17658594 -0.4060878 -0.99413437 -0.2637158 -0.21345022 -0.15794753 0.25252628 0.51849014 -0.22208515 0.41565487 -0.23554017 -0.097045064 0.046835575 -0.43172386 -0.055255804 0.9395616 -0.17970549 -0.5834972 0.036111593 0.37430808 -0.34922493 0.8772148 -0.37173012
59 -0.7093547 0.26642057 0.48677784 -0.3000712 -0.19038422 0.43050882 0.44566566 -0.036593575 0.45160642 -0.66278625 0.19186044 -0.30230477 -0.66408616 -0.21504042 0.5193517 0.52202296 0.2879649 -0.39286098 -0.26071915 -0.28090504 0.05215312 0.020030057 -0.33733007 0.30223012 -0.085062936 -0.0011198951 0.122055106 0.20627797 -0.46335146 0.43488106 0.051054325 0.3158028 0.18967393 -0.24292727 -0.30476603 0.11530838 0.49240357 0.26250377 0.48828518 0.6267083 -0.22913127 -0.21045841 -0.38894954 0.026756614 0.38964194 -0.018647827 -0.3996419 0.13183117 0.55748177 -0.31912017 -0.37527087 -0.25000226 -0.0263883 0.20634659 0.6463782 0.08893985 0.6867599 -0.057736255 -0.9139724 0.42461082 -0.016753314 0.27568018 -0.56420106 -0.10578153
16 -0.2475427 -0.63089305 -0.13919118 -0.37148127 -0.22523022 -0.32027623 0.97889614 -0.20289157 -0.08822847 0.20313337 -0.4142144 0.24951792 -0.12636487 -0.024625413 -0.055276256 0.4836819 -0.014879581 -0.4538417 -0.1967211 -0.12523456 0.10169207 -0.33109164 -0.16243213 0.20604807 -0.044020522 0.029928915 0.39897084 0.8721871 0.11073341 0.08756088 -0.11124551 -0.33913615 -1.0527592 -0.5525078 -0.37888193 0.27548143 -0.07784691 0.11009072 0.4985588 0.073656 -0.36575887 -1.0513054 0.09714949 -0.41580433 0.05008575 -0.22312738 -0.11229646 -0.6439523 -0.47066465 -0.7873136 0.33484533 -0.095767274 0.22787355 0.09643714 -0.017161405 -0.036456607 0.70847476 -0.086088434 -0.6901694 -0.45584646 -0.35047272 0.07035408 -0.52857435 0.09106791
44 0.5189194 0.7207579 -0.15343203 0.35763443 0.37879202 0.003921593 0.23779479 -0.42453805 0.13344963 0.6984273 -1.1139327 -0.11147307 0.101333015 0.07142846 0.6465982 0.022392757 -0.2878587 -0.5534954 -0.050187647 -0.2117341 -0.061863367 -0.39440843 -0.2543542 0.07082804 0.2460524 0.2678039 -0.06663843 0.094097525 0.6006737 -0.005782579 -0.5086072 0.5698456 0.0059703584 -0.73595196 0.27905026 0.6025643 0.40573928 -0.20889775 0.42257357 0.12463209 0.16590123 -0.66481405 0.60854673 -0.052363824 -0.18024316 0.101847306 -0.24113709 -0.23958668 -0.13866307 0.39995378 0.061537303 0.48556176 0.2503037 0.0032726694 -0.030799244 -0.6579314 0.25635302 0.32191375 -0.19426805 -0.15024893 -0.30678704 -1.0002711 -0.4688327 0.22052565
35 -0.0055466606 -0.6001007 -0.015787048 -0.34491485 -0.10784892 -0.21795225 0.1323671 -0.00532554 0.41582298 -0.2646144 0.07442007 -0.8067043 0.13425526 -0.09809277 0.16356172 0.19842456 0.46909863 -0.8212279 0.2696273 -0.73899734 -0.18862693 0.0420755 0.2920681 -0.24423467 0.22602193 0.2711131 -0.13552411 0.19904464 0.06482237 0.03667265 -0.00056435674 0.1888434 -0.40361947 0.20942362 0.843915 0.62100065 0.10498964 0.03023531 0.41326678 0.64483356 0.4274834 -0.6683332 0.23877662 0.37796527 0.0035077198 0.15477535 0.121986836 -0.3323073 0.13368864 -0.3578886 0.17349598 -0.8786604 0.6583256 -0.22431688 -0.13090363 -0.29252025 -0.08302197 -0.36951724 0.0752007 0.57193065 -0.29641622 0.14226866 -0.07127229 -0.72243434
90 -0.21469584 -0.20575154 -0.28189105 -0.5724311 -0.71245784 0.32947826 -0.09009343 0.72308475 0.03687432 -0.26034805 0.6461082 -0.97871137 0.048837148 0.4899548 -0.1262876 0.016664479 0.49664965 0.3359191 0.37182984 -0.13152526 0.85765195 0.36763388 0.09777912 0.23375574 -0.07565915 0.64947927 -0.18070461 -0.18153703 -0.10347136 -0.3491045 0.598479 0.18525046 0.06688276 -0.26330474 -0.027195392 -0.14464417 -0.9210443 -0.2699106 0.2346786 -0.46468362 0.06144312 -0.6236 -0.8303464 -0.4631292 -0.18916939 0.07615873 -0.82110244 -0.077012934 -0.7809455 -0.89095277 0.281119 -0.69369674 0.34218776 -0.23022337 0.03651646 -0.03930753 -0.030872917 -0.09093878 0.16118872 -0.07383799 0.34774148 0.3953522 0.14515767 0.5521553
31 0.4528594 -0.30421194 0.1306605 -0.09635323 0.20185748 0.3938183 0.17517614 -0.1118207 0.28962806 -0.33362105 -0.81899136 0.02419851 0.2667682 0.1992303 0.15063494 -0.13431482 0.42120638 -0.4630057 0.3306261 -0.019722141 0.12462443 -0.32006013 -0.7041145 0.513435 -0.28326917 0.24939616 0.2701549 0.40473902 -0.17445482 0.5369936 -0.4724949 0.8622652 0.013214921 0.091867 -0.11651733 0.25660542 0.18326116 -0.34615293 0.52581525 0.23256552 -0.6055545 0.36169347 0.15088932 -0.24047409 -0.3109971 -0.28136927 0.03847609 -0.12601463 -0.29365 -0.174103 0.108359516 0.24095711 0.19451548 -0.81316745 -0.3364668 -0.14445622 0.017582681 0.42669308 -0.93511397 0.016165841 -0.22142938 -0.9621058 -0.46051288 0.18804398
64 -0.2045548 -0.66904235 -0.18266883 -0.30345038 0.22053108 0.76085424 0.29361662 0.404434 0.27774936 -0.5333014 0.27857533 0.45911893 0.24654175 0.3188597 0.5312477 0.2567035 0.0253392 -0.6480233 -0.0779704 -0.110984035 -0.3465643 -0.19769822 0.4829394 0.07774801 -0.23629212 0.4412886 -0.4081645 0.024623362 0.06467368 0.11042537 0.64340097 0.46004513 0.07416402 -0.3327315 0.092626564 0.352008 -0.05284396 -0.15961024 0.2508092 -0.20862374 0.64467466 -0.021582676 0.59444124 0.07290446 -0.53446174 0.04261493 -0.33597216 0.34588334 -0.17980881 0.08667768 0.08236183 0.37240678 0.86384225 -0.061221473 0.07585255 -0.8316105 0.39787874 0.009833999 0.25290743 0.19167267 0.26980445 -0.23747697 0.4386602 0.10613367
12 -0.21855205 -0.5103357 0.3591376 0.27358007 -0.056652427 0.22453454 0.2792595 0.70950174 0.10722505 -1.0868974 0.21121715 0.23454101 0.65850526 -0.15158065 1.3133283 -0.1365412 -0.07918862 -0.7971894 -0.20760244 -0.08319328 0.051913943 0.061420657 -0.29216227 0.024420755 -0.117264844 -0.07217251 -0.0060909432 -0.08344422 -0.46436092 0.4350423 0.12368049 0.4091333 -0.057294253 0.031077327 -0.17212722 0.27241024 0.008769673 0.25951773 -0.18351997 -0.19349925 0.025944384 -0.2131423 -0.28880078 -0.53965265 -0.41669223 -0.95778626 -0.27785546 0.3583611 0.4069224 0.29855534 -0.2731365 0.10848408 0.39953786 -0.1916436 0.26920173 -0.6785072 -0.008608965 -0.26839042 -0.4171653 -0.10839153 -0.08296814 -0.0392169 -0.033598892 0.66283965
5 0.4053942 0.19390315 -0.0536495 0.030447964 0.14080338 -0.1653324 -0.12527864 0.33671722 0.219802 1.0879371 -0.5765346 0.06532278 -0.103422694 0.41236737 0.18703589 -0.34189534 0.13596717 -0.19541575 0.0158257 -0.2132716 0.9487187 0.22100155 0.14997774 0.0894113 0.28484112 -0.108312346 -0.3369725 -0.10258014 0.5196152 -0.33279115 -0.1207404 -0.017234115 -0.13687733 -0.6718333 0.39134058 0.1368228 0.31770423 0.20967446 -0.51730317 0.20546155 0.34971604 -0.017191056 0.2698951 0.2523786 -0.5899726 -0.76682675 -0.08210659 0.124339834 0.4743136 0.44495395 -0.84209573 -0.46265095 -0.23353212 -0.46883762 -0.049588032 0.20404136 -0.61054623 -0.056850847 0.21233132 0.30168363 -0.06454249 -0.35231775 0.31793264 -0.08988761
50 0.40400243 -0.42201105 -0.071859196 0.1606623 -0.21501873 0.2663525 -0.01630851 -0.03423058 -0.3326771 -0.44754413 0.312305 0.15745378 0.6108521 0.23147564 -0.06615265 -0.6474733 0.36776477 -0.49723613 0.24157882 0.13162497 0.64491093 0.089550555 0.1893223 0.16274032 0.6323845 0.21376547 0.16865043 0.27236083 0.042251967 -0.17324632 -0.12592714 0.084393635 -0.22137304 -0.04493378 -0.08600488 0.10321339 0.050549347 0.13745497 0.58733135 0.531907 0.1994951 1.0221362 -0.022255844 0.4984425 -0.20237735 0.28391087 -0.42945027 0.15859985 -0.20215806 -0.026632791 0.23246561 0.25602844 -0.4126092 -0.32585838 -0.6778981 0.54505324 -0.46123135 0.15079452 -0.21893463 0.3617722 0.42610022 -0.55782664 -0.062546976 -0.21063055
93 0.038574003 0.31440723 -0.34834296 -0.09541742 0.061567415 0.14070427 -0.284551 -0.12995307 0.016973523 1.0439835 0.07906434 0.68315303 -0.047494374 0.37912855 -0.08719515 0.4028154 0.19620907 0.39799953 -0.14559186 -0.5310226 0.59588856 -0.3409312 0.48335552 0.04372628 0.39184096 0.37048653 -0.75807285 0.11694502 0.25913864 -0.13018729 0.27394596 -0.44479042 0.23544136 -0.14375152 -0.23792386 -0.057909377 0.15462929 0.00089341303 0.48173225 -0.54552287 0.43361992 -1.0631982 0.7723529 0.35310382 0.3198475 0.46254858 -0.008489831 0.028692512 -0.13777663 0.10406245 0.14811628 0.090960614 0.020795723 -0.20499624 -0.048422594 -0.12994143 0.24728851 0.2850756 0.14442308 -0.2605852 0.33102608 0.6235996 0.12263737 0.08536546
54 0.37291804 -0.19707383 0.2230837 -0.15142173 -0.1993783 0.16170439 0.30202088 -0.6079385 0.5319472 -0.102830194 -0.14389576 -0.47482342 -0.2399818 -0.27909645 -0.5397028 -0.19166197 0.10486962 -0.40468284 0.44206384 -0.20029154 -0.26235607 -0.25729477 0.012547115 0.18923913 -0.14150935 0.17825937 -0.46488893 -0.045421537 -0.2160185 -0.108002074 -0.19290714 -0.07495541 -0.10584677 0.3816757 -0.017298166 0.3055426 0.074325085 -0.6906937 0.17834963 1.2266663 -0.11978417 -0.15280621 -0.32591733 -0.21831658 -0.18291867 0.8704068 -0.38980964 -0.70351815 0.008478932 -0.10819267 0.13846637 -1.0512419 -0.52079266 0.09501337 0.140802 0.8354238 0.14873625 -0.46883404 -0.77361584 0.11492073 0.25207958 -0.4092201 -0.1092108 -0.22417212
21 0.13919353 -0.3717734 0.27381745 0.31624952 -0.6479647 -0.49580464 0.6500128 0.0008295467 -0.47337532 -0.38566065 0.3723032 0.54855365 0.83455014 0.008139407 0.34789747 0.3108216 0.7600269 -0.36779642 -0.08682505 0.14598659 0.6474325 0.30353257 0.53843284 0.19657604 0.87922174 -0.03279083 -0.3285832 -0.037423696 -0.12972179 -0.6628373 0.89752203 -0.52859235 -0.73462135 0.34616795 0.10496929 0.021299466 0.218528 0.7743635 0.43805844 0.09830972 -0.100847095 0.13849813 0.042665545 0.87416065 0.17247103 -0.07422563 -0.16106147 -0.5171729 -0.24877399 -0.0017771014 -0.25505313 0.10526072 -0.31659564 -0.51322716 -0.34331354 -0.07525357 -0.24243367 0.23360594 0.32699084 0.592363 0.21547732 0.048256755 0.15626065 -0.4574592
7 0.4199575 0.32411826 -0.24148759 -0.2846002 -0.20179611 -0.0005070809 0.5532441 0.54260564 -0.21444733 0.11609839 0.18702751 0.46104974 0.811826 -0.3346961 -0.41905135 0.071528725 -0.4530013 -0.03431541 -0.40239853 0.20754623 0.28055906 -0.15747617 0.34603542 0.3492184 -0.20828584 0.4864918 -0.45461133 0.3648314 -0.29331952 -0.1809063 -0.2917473 -0.90754974 -0.29667404 0.73899204 0.0024251188 0.5064275 -0.0042156554 0.5860329 0.3242599 0.0027978683 0.57777905 -0.2833058 0.6756048 -0.1520308 -0.12297732 -0.05311274 0.21468747 0.26362288 0.23789869 0.32990253 0.54833376 -0.06400506 -0.7499148 0.03398835 -0.34355816 0.35301065 -0.4525333 -0.49188876 0.13116984 -0.21072878 0.40561855 -0.08690504 -0.5308949 0.34801772
98 0.15906061 -0.4158435 -0.35936743 -0.49376377 0.17538014 0.22507948 -0.44080672 -0.32392728 -0.12776537 0.5710697 0.44270954 0.23504333 -0.3719125 0.2562403 0.015164744 -0.45260432 -0.42312172 -0.25912517 0.053523976 -0.08608767 -0.17775595 -0.16944772 0.154109 -0.26322883 0.55108654 -0.11402446 -0.5990292 -0.027560046 -1.0915347 -0.059877023 0.17270334 0.48483717 0.4119772 0.12458579 1.5044507 -0.40374368 0.32126194 -1.2311561 0.42428014 0.17430586 0.5031204 0.39035994 -0.2796367 -0.57592696 0.18390115 -0.24979404 0.25245574 0.12007563 0.25722227 -0.29971424 0.37183478 -0.12972458 -0.045794643 0.12482266 -0.27136457 0.26447967 -0.2449791 -0.27750772 -0.33763018 0.041028053 0.5123587 -0.14804187 -0.6010823 0.26253784
22 -0.44075033 0.36459482 -0.4786098 -0.07234377 -0.7674633 -0.13916843 0.38504174 0.4519503 -0.32440183 0.021398215 0.15019637 0.26883328 -0.35618997 0.0035520769 -0.75438815 -0.29519236 0.15140106 0.45224518 -0.44046742 -0.24780631 0.57701814 -0.7675338 -0.15185314 0.54878414 -0.060842853 0.30969447 -0.37551335 0.08471831 0.21781382 -0.40132368 0.08185538 -0.4890392 -0.41229442 0.5232448 -0.40171155 0.26723018 0.40651804 0.71763283 0.3219208 0.78635037 -0.29095832 0.08160364 0.16120891 -0.31501782 0.56302583 0.5186177 -0.5515137 -0.25285977 -0.13835366 -0.22202243 0.44410002 -0.2316978 -0.57604 0.36703247 -0.01645377 0.28618303 0.5862193 -0.06735711 -0.4552934 -0.19751775 -0.21890672 -0.53845245 -0.2492157 0.12015334
25 -0.9203499 0.90618986 0.6506413 -0.0454314 -0.40198198 -0.24414659 0.020023616 -0.110316314 0.17050856 0.3703065 0.10341026 0.6298733 0.45358235 -0.11419182 0.044528414 0.31795338 0.075533114 0.42785296 0.22829494 -0.5263774 0.1449233 -0.17149752 -0.76758146 0.32491133 -0.16168924 0.4408927 0.4850338 -0.25910318 0.1523866 -0.37033427 0.029291235 -0.34976056 -0.8061764 -0.12469773 -0.38489524 -0.01947725 -0.11522348 0.27175158 -0.39837286 0.7348592 0.4544691 -0.19518647 0.55161315 -0.17318453 0.462357 -0.2508032 0.42936218 0.71082145 0.07986705 0.53847086 -0.29445302 -0.3006065 -0.025995757 0.28739852 0.051084757 -0.38924825 -0.28592348 0.11162846 -0.42814353 0.30436367 -0.08920664 -0.40589133 -0.35875094 0.4932365
39 0.6739905 -0.4950295 -0.4814286 -0.45031154 -0.034360804 -0.09327105 -0.16418071 0.7174359 0.24856235 -0.04927996 0.33782786 -0.41535303 -0.2479716 -0.06349352 0.34193286 -0.2279924 -0.37389803 -0.9729437 0.28737044 -0.03622815 0.48119435 0.30663472 -0.23076619 0.06526691 -0.25285432 -0.12734415 -0.110432565 -0.29544923 0.048748076 0.3887426 0.15607585 0.5450488 0.26634333 -0.71679157 0.30822843 0.021261677 0.43595678 -0.42396933 0.85662866 -0.0953852 -0.11590207 -0.4907841 -0.45944655 -0.13087997 -0.36104143 -0.6182154 -0.41002038 0.29715168 0.27037546 -0.07860811 -0.4120647 -0.26555035 0.17564407 -0.027047558 0.450821 -0.45900753 -0.21230644 -0.7317438 -0.42686987 0.09581619 -0.039336346 0.36325642 0.23072083 0.31562573
73 0.48164612 -0.8503049 -0.39489153 -0.09636312 0.1362568 0.22795081 -0.44097173 0.6757026 0.6165666 0.25464755 0.14203101 -0.22809304 -0.20282003 0.33153713 0.33253187 -0.26687306 0.76036453 -0.26200902 -0.028830513 -1.1355846 0.04878112 0.15747535 0.2830661 0.17274068 0.21852414 0.22221237 -0.72692746 -0.18685117 0.037206087 0.78952104 -0.37979683 0.568527 -0.13186508 0.030745624 -0.8237094 0.30141658 0.6576197 0.0126334 0.38786173 -0.39594695 0.10239229 0.34266815 0.2532805 0.16894884 -0.2776608 -0.75752413 0.019039555 0.40212825 -0.04037914 0.51508045 -0.39631042 0.27177355 -0.42118827 0.005638029 0.21471523 0.23139016 -0.28491318 0.5510169 0.18598995 0.17391291 0.31170347 0.43930423 0.08014008 -0.7000778
1 -0.8689811 -0.3891656 0.26776546 0.19154772 0.047414567 -0.49345148 0.23341985 0.117536165 -0.037661277 0.04791951 1.0897944 -0.077912875 0.502083 0.046799164 0.19864859 -0.39669082 0.0072122435 0.25117126 0.21590488 -0.64546144 -0.04621652 0.0442186 -0.045089226 0.13242 0.1761772 0.12146683 -0.1513753 -0.61933064 0.33048746 0.16252 -0.16528222 -0.08010547 -0.30492154 -0.13287894 -0.051786423 -0.6092227 -0.10626682 -0.009724182 0.07908732 0.4545788 0.30071944 -0.09842717 -0.36078003 0.6561944 -0.25128308 0.9547346 -0.45253742 0.41092452 -0.4122224 0.62869775 0.2105527 -0.28104872 0.24594623 -0.20089038 -0.25207978 0.09933223 0.45553443 -0.33651114 0.09172494 0.7153896 0.9392808 -0.78273165 0.5068118 -0.069829494
87 -0.27968094 -0.6204678 0.26686037 -0.44726267 -0.23105796 0.9025488 0.42199415 -0.34615418 0.0645132 -0.3465764 -0.31683388 0.46639937 -0.023953069 0.84490895 0.49708465 0.40159214 1.0755806 0.03575549 0.0029014475 -0.2093295 0.2435103 -0.8800622 0.3022321 0.46909073 -0.26465634 0.6282271 -0.1686035 1.1435632 -0.1324207 -0.49345586 0.5275376 -0.19938868 0.2892567 0.7232456 -0.55082536 0.19861396 -0.48347571 0.21230684 -0.51346713 -0.14698589 0.6950226 0.20032142 0.15257624 -0.56468564 -0.39215887 0.14299244 0.07895657 -0.5693751 -0.25207084 -0.89193815 0.056937467 -0.18164073 -0.19006908 -0.46770498 -0.09080696 0.12965684 0.19382893 -0.45365557 -0.098808065 -0.35154456 -0.19827494 -0.18530013 0.22131976 0.29659578
40 0.21740426 -0.7290256 -0.8815266 0.124891385 -0.10180893 -0.048350208 -0.8436128 0.07779926 0.15075532 -0.15620548 -0.1817862 0.26024452 -0.16637525 0.49510035 0.21800967 -0.0176986 -0.1603894 0.046410535 0.39513248 0.01492111 -0.32011738 -0.11903497 -1.4341469 0.44456357 0.2600368 0.54039896 0.014374326 0.3124091 0.07982646 -0.053516466 0.08351978 0.06879694 -0.5545481 -0.6389554 -0.4777967 0.25546527 0.39262426 0.090729065 -0.6107638 -0.28644016 0.37960318 0.09630095 -0.3736083 -0.21409652 -0.30980363 -0.550305 0.07206553 0.32670867 0.4746651 -0.66928446 -0.5265565 -0.33801806 -0.081206426 -0.2089556 -0.90418124 -0.3625298 0.32216778 0.36798894 0.14867646 0.46081835 -0.026858594 -0.6852938 0.113305904 -0.44210362
61 0.36338496 0.42410085 -0.43414542 -0.5138844 -0.31805533 -0.0045237355 0.6450273 -0.6703485 0.40259716 0.4432303 -0.33627144 -0.20772582 -0.2751555 -0.3546909 -0.21636727 0.90797263 0.1735404 -0.32783267 -0.21870117 -0.080707975 0.29328337 -0.10751821 0.4458877 -0.14444181 -0.35953763 0.737746 -0.4624089 -0.32785338 0.26637506 -0.15671654 0.25408122 0.14862978 0.4817162 -0.6925216 0.52188706 0.9605682 -0.107469924 0.2836158 0.6396282 0.17762007 0.27002516 -0.3744675 0.43621418 0.40863168 0.23468606 0.26791856 -0.9007238 -0.027702143 0.026619624 -0.26456377 0.31523934 0.008326974 0.18607895 -0.13074498 -0.3947679 0.27667576 0.0008649777 -0.04585231 -0.49988192 0.5645973 0.8504756 0.0659689 -0.51232517 0.39796132
48 -0.27978852 -0.6487809 0.33732006 -0.22185844 0.016198544 -0.024731394 -0.12135808 -0.002246767 0.046988633 0.12528616 0.26091102 0.20190741 -1.3528483 0.29102337 0.7831602 0.24332935 0.4310235 -0.2783564 -0.08600621 0.014929109 0.02592017 -0.38284585 -0.100985415 0.23274799 0.24520127 0.27256727 -0.29897118 0.060603056 -0.8380491 0.036822155 -0.0051787896 -0.10029185 -0.14715561 -0.00033798866 -0.03523675 -0.24967508 0.7113134 -0.093728326 0.3217186 0.10405607 0.34612545 0.1136956 0.13662294 -0.009611939 0.3043516 -0.31511745 0.06313775 -0.11987185 0.47261944 -0.561176 -0.7339134 0.18169783 -0.68315 -0.1130097 0.24940683 0.17728013 0.30987504 -0.8567152 -0.1417445 0.03662841 -0.1372959 0.0366484 -0.40697616 0.33062345
51 -0.030254181 -0.8693769 0.2702479 0.6015839 -0.39285836 -0.13869363 0.33923742 0.15686822 0.17763714 -0.29325795 0.16793223 0.50725126 -0.06541844 0.5634336 -0.5777781 0.5489099 0.3391632 -0.6590495 0.59498066 0.17621735 -0.10862488 0.05322039 -0.12808953 0.018470814 0.8669136 0.24630265 -0.014462664 0.06331954 -0.21905091 -0.24134189 -0.19449078 -0.07711408 -1.0402126 0.35184333 -0.75070864 -0.12548222 0.012474682 -0.029049207 0.030657113 -0.17684376 0.012866828 0.20461926 -0.39016503 0.23906669 0.059679072 -0.3138634 0.25107378 0.18712635 -0.48977405 0.025441881 0.27151692 -0.44728136 -0.27752596 0.7458193 -0.23708893 0.49130315 -0.13680433 0.6550506 -0.18577604 -0.100128524 0.34307298 -0.3155904 -0.34577957 -0.4090277
47 -0.18051666 0.129546 -0.37087998 -0.30745938 -0.16752827 0.39089432 0.13751662 -0.26731282 0.0841335 -0.22759852 -0.16840167 -0.39574018 0.7770909 -0.17294908 0.19244798 0.31681043 0.04231767 0.31402677 -0.5502625 0.027174355 0.62945145 0.49910784 0.65173095 -0.04601353 0.48361465 0.42052373 -0.55847955 0.4630386 0.3314537 -0.008130306 -0.21640414 -0.08976274 0.2712921 0.22319219 -0.19105884 0.62913483 -0.2931796 0.116150916 0.09871827 0.2939281 0.41182148 -0.008506114 -0.82663536 0.35822356 -0.112069175 0.09659361 -0.14420006 0.12270492 0.1215812 0.25090867 0.6242045 -0.32510474 -0.6090727 0.296313 -0.379722 0.8992013 -0.04435922 0.6343822 -0.42640364 0.22523223 0.47399065 0.3613532 -0.8795696 -0.6560578
99 -0.20575477 0.40367642 0.40888014 -0.4720683 0.44174248 0.17537606 -0.19729438 0.17342032 0.68569154 0.27345446 0.40660006 0.23297733 0.37522894 -0.28457457 0.49163142 0.34830883 -0.19153354 -0.114838466 0.7199904 -0.56363064 -0.13020374 0.33288607 0.5678273 -0.008462992 0.73571754 -0.45539272 -0.6470155 -0.028574336 0.5636658 -0.13892674 0.3619412 -0.34851858 -0.11835031 0.29445627 -0.69901663 0.55321455 0.15716083 -0.1309556 -0.6767278 -0.40581056 0.17594975 -0.038854893 -0.011760567 -1.072619 -0.53844804 0.06166123 0.1495969 0.095405884 0.112311676 -0.36348218 -0.041055582 -0.6032445 -0.6078797 -0.098405086 0.28667113 -0.08501217 -0.34982875 0.24027874 -0.0679983 0.44590315 0.26388952 0.027544228 0.6049571 -0.2614129
77 0.11398678 0.40017587 -0.33041358 -0.39709717 0.47459742 0.5517533 -0.08792901 -0.30678695 -0.4525644 0.45034817 -0.25311044 0.6518549 0.6243933 -0.46466112 -0.52668685 -0.07269444 -0.6213139 -0.03179251 0.8325931 -0.17631179 0.012391903 0.25764513 0.13234308 0.071861744 0.5997754 -0.31228158 -0.2632877 0.2855535 0.3767601 -0.19498752 0.5729975 -0.10817216 0.20562807 -0.12981442 0.3710315 0.3283489 -0.11551244 -0.33267522 0.595277 -0.2663702 0.11666275 -0.2886084 0.48867178 -0.3494172 -0.09258598 -0.10624696 0.7960207 0.16723166 -0.111809626 -0.40336558 0.52323765 -0.2500153 -0.1256 -0.22132248 -0.61331207 -0.49289995 -0.5811319 0.34982067 -0.33176124 0.44830856 0.16028635 -0.62978643 -0.2642684 -0.13968463
14 -0.33433276 1.1737974 0.018133309 -0.12695216 -0.18996942 0.58577967 0.30348545 0.068742305 0.27658826 -0.29564625 0.07246409 0.04906864 0.65068024 0.26146296 0.07034327 0.57822025 0.056916974 0.31792715 -0.25666964 0.39141247 -0.19973361 -0.024007248 0.29876688 1.0015728 0.18413138 0.15971951 -0.16553192 -0.014024798 0.37339923 0.0050748577 0.1398639 0.360045 0.18761832 0.4346329 -0.5791966 -0.2917875 -0.4260664 -0.3378986 0.111152016 0.22719923 0.09210551 0.052751407 -0.13224217 0.5045568 -0.07705489 -0.21345574 0.19947825 0.65976745 -1.1126211 0.36480233 0.030480942 -0.26746827 -0.41188616 0.021176549 -0.1446477 0.100651436 -0.07630457 0.6135604 -0.5420372 0.17181209 0.10760413 -0.110171504 -0.7245171 -0.11068132
89 -0.3351385 0.26618332 0.5602564 0.12941302 -0.16287242 0.21763206 -0.7330595 0.94427794 -0.00987258 0.037376247 0.08228273 -0.20051992 0.14696793 0.9293007 0.9141456 0.6541454 0.47750252 -0.48372558 -0.67568845 0.00910466 0.50143033 -0.2429986 -0.11286553 -0.011099446 0.09596112 0.7740336 0.05776219 0.18559152 -0.025941506 -0.11405608 0.07546361 0.56875545 0.112081945 -0.15030436 -0.064508244 -0.12763213 0.43455037 -0.18480164 0.23542823 -0.19246756 0.5069929 0.18441586 -0.48732257 0.23869935 -0.8392414 -0.36637357 0.14275366 0.1964963 0.0916726 0.4910308 -0.16933596 0.6914455 -0.748737 0.104490034 0.3533543 0.07083849 0.32232854 0.46500075 0.44492412 0.040655863 0.025787937 0.16987059 0.029742394 -0.12570271
55 -0.045415986 0.017039994 0.5767167 -0.25477922 0.3737702 -0.27910116 -0.035727184 -0.28262123 -0.021587979 0.13176724 -0.33776808 1.0947369 0.13045867 -0.84321904 -0.070927545 0.7558744 0.36752564 0.21994537 0.10614647 -0.82996994 0.86298454 0.25364876 -0.30343068 -0.22806543 0.39472935 -0.3067213 0.1815307 0.11778482 0.5654588 -0.3876358 0.34149605 -0.29784444 0.14889146 -0.79465336 -0.5012444 -0.55434537 0.49969542 -0.19834231 0.14027463 0.58117056 -0.69130826 -0.5679893 -0.6338211 0.14689201 -0.23408355 -0.21098155 -0.49185553 0.033353534 0.23820801 0.7457952 0.18489283 0.18238363 -0.8720806 -0.82255584 -0.49301043 -0.23290724 0.35963336 -0.06740809 -0.46138674 0.83588195 -0.097825065 -0.19698198 0.3770791 -0.25124866
79 0.05492245 -0.37677535 0.15460649 0.15378252 0.22049879 -0.18838707 -0.6879293 0.26633346 0.42596692 0.12788104 0.553894 -0.18476172 0.3750519 0.61345583 0.1473058 -0.14606361 -0.26942366 -0.043207634 0.25411478 -0.23130764 0.4767688 -0.20638792 -0.23851918 -0.090860784 0.79719704 0.27520573 0.11269768 0.16143452 -0.15937251 -0.17613149 -0.76654357 -0.28267026 -0.45418712 0.1401297 0.26848638 -0.16274701 0.26905146 -0.3368227 -0.38486403 -0.09420686 0.37244847 0.07049354 -0.62270653 -0.21504907 -0.29308122 0.48555282 -0.2557976 0.68418604 0.40932083 0.14202836 0.07274052 -0.46100205 -0.57255846 0.3664726 0.07604835 0.8320508 -0.17275223 -0.16169831 -0.21361008 -0.33797306 0.21140073 0.10220137 0.41194862 0.40136132
66 -1.0153185 -0.32763603 0.47326744 -0.11184396 0.47735897 0.16476396 0.9863296 -0.5915235 -0.09300147 0.864853 -0.5313454 0.98149127 0.00048701468 -0.2293372 0.7172162 -0.371715 0.2025321 0.5407774 -0.17527851 -0.59135985 0.6815817 -0.35927132 0.7931994 0.4995164 -0.092527814 -0.21984954 0.09389685 -0.14366691 0.2575635 0.049149673 0.22631872 0.044999793 0.38487193 0.08775393 -0.24143991 -0.2692355 -0.4875801 0.42658088 -0.312202 0.06410268 0.52433157 -0.056214634 0.6261459 0.02333126 -0.10955949 -0.7194012 0.6308057 0.56826425 0.08049088 0.12544023 -0.04840725 -0.30107158 -0.28906643 -0.1745721 0.0773789 -0.015310451 -0.9992009 -0.72658414 -0.18907948 0.38214967 -0.23698479 -0.31049857 -0.1320081 0.5125572
38 1.0642322 -0.0332993 -0.306128 0.15720661 -0.17320268 -0.02079106 0.25727305 -0.049759313 0.20520389 -0.1600174 -0.103627644 0.3272203 -0.28517595 -0.18698557 -0.2943978 1.0140433 0.5029497 -0.09855103 -0.07955155 -0.46101457 -0.8465985 -0.047047943 -0.40533474 -0.17477202 -0.41211826 0.68447274 -0.69182974 -0.5964672 -0.36851117 -0.25487673 1.1402583 0.820778 0.19424956 0.34901524 0.087896235 0.62042713 0.07885222 -0.5248961 0.32370198 -0.42088142 -0.32399523 -1.0294716 0.03797619 -0.5504561 0.26632842 0.3277879 -0.56638104 0.04293394 0.010518752 -0.34568965 -0.21670361 -0.33626312 0.6776488 0.33100826 0.18412866 -0.5095823 0.25533682 0.7572677 0.016770875 0.6508228 0.38490614 -0.3184557 -0.13963468 -0.47340512
71 0.10754506 0.33743426 -0.7059819 0.6931765 -0.93600583 0.524795 -0.22515705 0.80015683 -0.36983514 -0.53007466 0.18301877 -0.2508747 0.99204075 -0.34770656 -0.5247592 -0.11116944 -0.14966463 -0.3361846 0.036964342 -0.02331373 -0.23705113 -0.29544455 -0.5283596 0.7662712 -0.0886262 0.38167402 -0.9015007 0.23055555 -1.0914664 -0.10006241 -0.42655072 -0.36017168 -0.34200814 -0.04995259 0.5531961 0.4739411 0.7453595 -0.601194 -0.2093682 -0.029087774 -0.54027164 -0.47231925 -0.3804385 -0.1519365 -0.3220774 0.32783157 0.09658533 -0.4380517 1.0725296 -0.30542707 -0.30078328 -0.8412115 -0.18712455 -0.2712135 0.30869862 -0.65691274 0.7279888 -0.023210239 0.54402596 -0.34329718 0.56480074 0.25717998 0.074731074 0.2527185
